{
  "layers": [
    [
      {
        "weights": [
          -0.7854472388173326,
          0.21065174655495786,
          -0.044601445438863824,
          -0.5931383357507308,
          -0.26917929765778903,
          -0.8141406842949419,
          0.9489817857885369,
          -0.47224603692532313
        ],
        "bias": -0.8337131725257796
      },
      {
        "weights": [
          -0.8717879531618398,
          1.0796394034309782,
          0.2883833776801965,
          0.19664625188300222,
          0.4227106194371713,
          0.814667192473264,
          -0.7271768840664519,
          1.1409966031276044
        ],
        "bias": 0.28097669705569267
      },
      {
        "weights": [
          -0.5036476062330755,
          -0.6679491357464846,
          0.20351282938933124,
          0.4706549058771652,
          -1.0624861697877273,
          -0.46566183963180163,
          -0.35598103207225273,
          -1.0504951309701367
        ],
        "bias": 0.030774560362816845
      },
      {
        "weights": [
          -0.3296761095402062,
          1.2976015784947077,
          0.7299741437789101,
          0.6675275944833311,
          -0.3821396244838306,
          0.5325017063979289,
          0.41758166581904477,
          -0.047685899217154076
        ],
        "bias": -0.4186814776673988
      },
      {
        "weights": [
          -0.05049024588781678,
          -0.9969677152362378,
          0.2598421963811428,
          0.5210684445043724,
          0.5803201530260187,
          -0.5952163421499816,
          0.4727728588360739,
          -0.8162547130578519
        ],
        "bias": 0.8979890385104182
      },
      {
        "weights": [
          0.16629468428081431,
          -1.0308713213383993,
          0.4063801300554988,
          0.7087579341867373,
          -0.19733579314938451,
          0.8014909408011759,
          0.5495902338277483,
          0.4281754585885841
        ],
        "bias": -0.3336519172583835
      },
      {
        "weights": [
          0.26634946890996425,
          0.7743209127373882,
          -1.0802056377059648,
          0.7469887514549693,
          -0.616531445550868,
          -0.6245121583520009,
          -0.40163157349401424,
          -0.15012111926708968
        ],
        "bias": -0.46335776594652545
      },
      {
        "weights": [
          -0.19976908749157207,
          -0.4401921900760226,
          -0.8073644649407783,
          -0.06706049862395504,
          -0.23959161589589706,
          -0.0033403666418944655,
          -0.6022879027967538,
          -0.4771240904277261
        ],
        "bias": 0.4285074115984394
      },
      {
        "weights": [
          0.7658953465959534,
          0.9319544538875646,
          0.6004109737055493,
          -0.4795162205290923,
          -0.40088168171209904,
          0.5505352818614775,
          -0.36260061220617806,
          -0.36229667013897987
        ],
        "bias": -0.8876988924482306
      },
      {
        "weights": [
          -0.5890677340175102,
          1.2542421819885738,
          -0.08335472096545248,
          -0.9321921189716275,
          -0.914904970207869,
          0.08962186596476297,
          -0.4642046608534994,
          -0.0814143525106395
        ],
        "bias": -0.4898085851905106
      },
      {
        "weights": [
          -0.44058460855236303,
          -0.28315542299061236,
          0.5901872515996913,
          -0.3963587730349299,
          -0.46593541659358534,
          -0.4203348304564979,
          0.5183314191254467,
          0.04905726260173167
        ],
        "bias": 0.9074438704870466
      },
      {
        "weights": [
          0.17516414874268366,
          0.649754239893757,
          -0.5156246636882891,
          0.9348910475233556,
          -0.6341611447400677,
          -0.8478280133126457,
          0.735716049707573,
          0.3544309930160928
        ],
        "bias": -0.734153609916632
      },
      {
        "weights": [
          -0.7138591300621773,
          -0.3774685182907023,
          -0.16565034219211142,
          -0.19380856364652113,
          0.05131644970984006,
          -1.0016191952751445,
          0.4268487627843495,
          0.25837948151734247
        ],
        "bias": 0.24877046879452924
      },
      {
        "weights": [
          -0.7630616920459206,
          -0.4357439933554909,
          -0.1646055419069621,
          -1.1703055580349422,
          -0.7908421813134836,
          0.7447503416982526,
          -0.9755666344490931,
          0.06884916182149069
        ],
        "bias": -0.6651722787346298
      },
      {
        "weights": [
          -0.38946843471412995,
          -0.5629574512580396,
          0.9226137930170539,
          -0.6430507190101091,
          0.12992300046335678,
          -0.9750747127408809,
          -0.7242427373078887,
          -0.306296516696039
        ],
        "bias": 0.10104721954717702
      },
      {
        "weights": [
          -0.09222011936417163,
          -0.11796280165352332,
          0.5857436174935875,
          0.7390001697002566,
          -0.8775482957666066,
          -0.5565629930172865,
          -0.0573342515273198,
          -0.8353505888706275
        ],
        "bias": -0.8030455159934698
      }
    ],
    [
      {
        "weights": [
          -0.7134019608665858,
          -0.005048682204109894,
          0.4819286041867695,
          -0.8269763749136626,
          -0.05175608203597569,
          -0.584896521245605,
          0.2401690707378194,
          0.5147410907688182,
          0.10674572960128423,
          -0.26305165990103596,
          -0.29799116572208745,
          -0.5376313109973898,
          -1.2586441956578787,
          0.34536808078268744,
          -0.6036914289286632,
          -1.0160808742309362
        ],
        "bias": 0.42445390425802065
      },
      {
        "weights": [
          0.3448672396646758,
          -0.769789588232703,
          0.908777187756126,
          -0.6712493802009794,
          -0.3631347100292547,
          -0.8195677977992701,
          0.4096348687796997,
          0.8255273418144927,
          0.811779708449713,
          0.5516607272914645,
          0.2591288881552357,
          0.24586925420505434,
          0.6093778510831307,
          -1.1195839493160291,
          0.850756471329641,
          -0.5840488217645019
        ],
        "bias": 0.6462810367918711
      },
      {
        "weights": [
          -1.154603983275402,
          -0.11157045434521706,
          1.1715090259013168,
          -0.17252434031095676,
          1.1118990868582308,
          -0.7541291816705127,
          -0.060064944054074185,
          0.46579412722244995,
          0.06920153612372011,
          0.9027202129701721,
          0.15767270387316373,
          -1.1528214678668098,
          0.024052872727185787,
          0.749868789059062,
          0.031115290871282758,
          0.4423338986095581
        ],
        "bias": 0.6624931186633898
      },
      {
        "weights": [
          -0.5741496838887745,
          -0.1272396879218828,
          -0.1635103582318084,
          0.917323125837117,
          -0.6807172875789889,
          -0.15837677238710698,
          -0.7475827108949397,
          1.161969327061776,
          0.3842259103006773,
          -0.744274238671204,
          -0.09062001194615314,
          -0.3169132076738447,
          -0.12543557408727493,
          0.06380419634844192,
          0.599349894843635,
          0.6016837622191579
        ],
        "bias": 0.37982485506298225
      }
    ]
  ],
  "structure": [
    8,
    16,
    4
  ],
  "fitness": 93
}