{
  "layers": [
    [
      {
        "weights": [
          -0.1978831065533666,
          0.7619951615493483,
          0.7977222260733421,
          -0.15097257220067,
          0.7948258251545195,
          -0.6339311255419767,
          0.3270571230658939,
          0.42162995582965446,
          0.10454759085865399,
          0.44311442794561884,
          0.2101871724388985,
          -0.12217452704003424,
          0.15531596409559478,
          0.7872438226893017,
          0.05194701068039743,
          -0.2187665965366435,
          0.8281976808849216,
          0.032817155439133695,
          -0.3744864700177189,
          0.8964295962352501,
          1.150485876961377,
          0.35483615989338235,
          -0.08576094658068174,
          -0.8691090775359392,
          -0.5418224406116696,
          -0.011402742064094001,
          0.7751831488115516,
          -0.5835208001545015,
          -0.952734760699892,
          -0.6582854690643956,
          0.8818677486801388,
          0.857461079368983,
          -0.09193318170381666,
          0.28794520458858525,
          -0.03302498452036658,
          -0.19800874644441133,
          -0.6057925067559384,
          -0.3904803981424629,
          -0.319390870148048,
          0.13091500990704152,
          -0.9539250728057975,
          1.2894465323180382,
          -0.2714623135362651,
          0.8455704932686807,
          0.29859849324325327,
          -1.2052739634118073,
          -0.8877517625936359,
          0.2870321724724395,
          -0.4683052170988117,
          1.1287642205366,
          -0.0781297108865343,
          0.059721029670374,
          0.11338119455866535,
          -1.1204438053935997,
          -0.1688144245381097,
          -0.22988157435751044,
          -0.06991211240907051,
          -0.9974724728517942,
          0.6149379231900464,
          -0.894479590891058,
          0.49385678335914684,
          0.3750393622171209,
          0.993061950828644,
          -0.37226905337850114
        ],
        "bias": -0.13585674140503778
      },
      {
        "weights": [
          -0.02641698509984991,
          0.6073628069307623,
          -0.31177325196561,
          -0.31163532104131497,
          1.5028769554803874,
          1.0821872722664139,
          -0.5227675437431931,
          0.5676878296546307,
          0.7753033357067234,
          -0.18522359198007934,
          -0.31196602800501694,
          0.11509271763759589,
          1.2344943733736289,
          -0.388567399469709,
          -1.161686925858105,
          -0.0657899932241888,
          0.5629764383228981,
          0.3303074193684072,
          -0.26625149041462215,
          0.1811474449292169,
          0.30804944560823383,
          0.40510281322165104,
          0.43877501788568185,
          -0.5745142913989554,
          0.385478683369595,
          -0.8553717564890321,
          -0.7563410997054351,
          0.029012852316428916,
          -0.1990356238871047,
          0.3510533680561259,
          -1.1616967334978425,
          -0.9972735121312513,
          -0.4083370464570957,
          0.2324885199066779,
          0.3699358906791128,
          -0.14107132963602853,
          0.4334233675177032,
          0.44769175402357714,
          0.04582856488976242,
          0.5071434067040326,
          0.2607662309371792,
          0.43678529876124456,
          0.6754904611284961,
          -0.3836586602680419,
          -0.4057119137790286,
          -0.055264938110414816,
          -0.5313328825418698,
          -0.13770465458291373,
          -0.8511241456962344,
          -0.9212134267906044,
          0.520453465977565,
          -0.44184030476600444,
          -0.5589488874567325,
          0.32664015032753146,
          -0.8765467664266553,
          0.5430175593385141,
          0.38103926190288595,
          -0.7034838760244497,
          0.4930487090382404,
          0.40533403927395956,
          1.6157180889541445,
          0.5766613239227146,
          -0.507093874946089,
          0.7717292664049921
        ],
        "bias": -0.12873541370525582
      },
      {
        "weights": [
          0.12973368682963216,
          0.12381456664490423,
          -0.7688075564749275,
          -0.5321719936217404,
          -1.7520932843476047,
          -1.0227770471286202,
          -1.5743131886761843,
          -0.7544795245736227,
          -0.7077280476209835,
          0.4978837203987892,
          -0.2068797066269936,
          -1.046134742393394,
          0.052043586490998966,
          -1.0641987678912905,
          0.4107623412487802,
          -0.37156437862470354,
          0.12885496376002684,
          -0.46882652605993974,
          1.1223005367641077,
          0.23775611220374918,
          0.4463726926304919,
          2.326542230262772,
          1.5047011335184286,
          0.7757996557253015,
          -0.21587596498418432,
          0.14864842700642084,
          -0.8713826372474706,
          0.34100077656339745,
          0.19740366165760598,
          0.5235706569627174,
          1.462798873922137,
          0.8424686429530852,
          0.5049023465876776,
          0.5976544682706912,
          0.654722738796753,
          -0.22648204262714436,
          0.058984480806138516,
          0.38057704610900195,
          -0.1427042325294133,
          0.04644894099902808,
          -0.9432501724254932,
          0.15998354309848317,
          0.0721297518068998,
          0.3144839082541576,
          0.24964842380342275,
          -0.22379942508521164,
          -0.8250060991528368,
          -0.5463302955856894,
          0.5356624442652314,
          0.9067115612582737,
          -0.049703854751750154,
          -0.1141828167667156,
          0.9056016837867,
          -1.2228652214056517,
          -0.4359289022349139,
          0.5643537067916562,
          0.055642395058577994,
          0.3897855176625716,
          0.5231426610143886,
          0.17865865910921858,
          -0.0360367730440958,
          -0.3056820714208171,
          -0.21429243653174448,
          -0.432311473897429
        ],
        "bias": -1.8521685880295398
      },
      {
        "weights": [
          -0.07568719605020657,
          -0.5443499540450996,
          -1.2600610851173206,
          0.4457290265608505,
          -0.8614613302705751,
          0.4762145818514652,
          0.46510680555857437,
          -0.03717782230571029,
          0.32107239542275756,
          -0.47031091855678625,
          -0.8278046212770948,
          1.4591192554178463,
          -0.029014409620997484,
          -0.5712215461474509,
          -0.03188831845734936,
          -0.3605477353449072,
          0.9237008987134286,
          -1.135225715176128,
          -0.42638005188655004,
          0.9292672352767701,
          0.11877732655321643,
          -0.16051711067174027,
          -0.2912786697341074,
          -0.09454015052924043,
          0.18192178944187043,
          -0.3611630273173878,
          -0.8542996839955457,
          -0.14878874315349655,
          0.5159765922133319,
          0.702093491161466,
          -0.8004490626607579,
          0.9698880281040623,
          -0.5943906904860626,
          0.10144062652320134,
          0.6605807615604257,
          0.8316966903126541,
          -0.44202372171213417,
          -0.20064538029862333,
          -1.111594054157673,
          -0.6828856757270083,
          -0.5270854909712344,
          -1.0531043422529736,
          -0.44804918552210055,
          -0.5816050655278444,
          -1.0635649350656424,
          -0.18400059015879763,
          -0.12600009578668778,
          -0.6546830469100339,
          -0.5271406327168132,
          -0.5372012168574318,
          0.3599936110864327,
          -0.9468958300136002,
          -0.6265388242189682,
          0.04905176165769591,
          0.020477176701268092,
          -0.14484787090002874,
          0.9413032814898736,
          0.27339496274257724,
          -0.9078478052833943,
          0.5331488805554899,
          0.554693494271885,
          0.01729320866498124,
          0.36572612481281613,
          0.9878300860438654
        ],
        "bias": 0.05739744979998635
      },
      {
        "weights": [
          -0.007508741429829602,
          -0.8289132842451569,
          -0.3744167014517735,
          -0.3159975171925236,
          0.6088368441098604,
          0.5002478202093307,
          0.8611024623462699,
          -0.7212583493216742,
          0.9219129507739716,
          0.34810852181689755,
          -0.42732296228672056,
          0.13605351393204562,
          0.6781743643545453,
          -0.26703897300038354,
          0.9368693371893705,
          0.1650603224806264,
          -0.03172358598821273,
          -0.010283079155727159,
          -0.1794731663053324,
          0.3814385749078895,
          0.4445959071579064,
          -0.8728351900760785,
          0.3761897544154004,
          -0.5338922059186538,
          0.9945241916146832,
          0.08272742214926775,
          1.196222854654271,
          -1.0942379926437178,
          1.548796405497588,
          0.3402169581807191,
          -0.7746764673814367,
          -0.04249145914186528,
          0.34335821513644893,
          0.7311101870615775,
          -0.37915547972276753,
          -0.1923199150381783,
          0.30143155718264797,
          1.1181094115882686,
          0.2028605074325769,
          0.19621802566408464,
          -0.13753260998513503,
          -0.3525214825169905,
          0.0018846057744198142,
          -0.9527185109154177,
          -1.2467173754654473,
          0.9752712702322742,
          -0.5515151380003963,
          -0.17636781070104726,
          0.08864698216007218,
          0.20002043062837166,
          -0.1298370719141506,
          0.29666849954887003,
          -0.9723042292417126,
          0.4272073988117559,
          1.4149398536676632,
          0.23713671828190389,
          -0.3825539842276876,
          0.34484007295585273,
          -0.6157620145384831,
          -0.5329062417009286,
          0.3766471831591472,
          0.127954716085467,
          0.8524462049577354,
          0.6002338485041256
        ],
        "bias": -1.406278445966014
      },
      {
        "weights": [
          0.5191028741784733,
          -0.5521906457684181,
          -0.22781228538432038,
          -0.11300422686132278,
          -0.28876704060766434,
          -0.4815182360480777,
          -0.6605063937557877,
          0.565600268764337,
          -0.7047092392204908,
          -0.6471124957747759,
          -0.7302074558334704,
          -1.0168845181334814,
          -0.7004897891190227,
          -0.035061608307089695,
          0.00147356808002901,
          0.7187479618232504,
          0.07134255926361671,
          -0.24904107876029688,
          0.12019074165039752,
          -0.3409926460797586,
          0.38809991912362296,
          -0.029689447663757678,
          1.1965221591406412,
          -0.9935282644578186,
          0.5766494638390013,
          0.5535678368710132,
          0.14091218074967563,
          0.18721435315469181,
          0.2556016170805226,
          -0.4592562568575142,
          1.583066194835756,
          -0.4606502946229568,
          -0.6719837055437122,
          0.6099583543086268,
          0.7303379096607348,
          -0.33652036112962985,
          0.3417088686655585,
          -0.017058581255310287,
          -0.43218133819287063,
          0.0027712688385279627,
          0.5108324740503349,
          0.5963761517174477,
          3.8973362038593384,
          2.3802441744196803,
          0.9680335088201073,
          -0.19946683573497428,
          0.3856262455378676,
          0.7330891583021114,
          -0.0007607112337517329,
          1.112725995913629,
          -0.3479772762778854,
          0.8150574406791534,
          1.1342545387451402,
          0.2655205141057119,
          -0.24183369460385815,
          0.5337359816607223,
          -0.4857449157165862,
          -0.828355682915123,
          -0.6693529431962326,
          -1.119158378627519,
          0.004983824847996194,
          0.6863508195772603,
          1.425906599810137,
          1.4411573897931385
        ],
        "bias": 1.056948989487066
      },
      {
        "weights": [
          0.9108212079095805,
          -0.7858413753618029,
          0.2837252456475569,
          -0.23683891603880003,
          -0.7671949285152974,
          -0.9879647690592296,
          0.38511604888750306,
          0.162243644363181,
          0.900866198547231,
          -0.23410236127952896,
          -0.1268296365378198,
          0.594329704755088,
          1.179063482596361,
          -0.37679303165992517,
          -0.06772630875465448,
          -0.06812328788895383,
          -0.009027471053252285,
          0.6714371032086446,
          -1.4233120564376454,
          -0.8215291739698587,
          -0.30994801329875643,
          0.2302027228011969,
          -0.3807687850552546,
          -0.7256354872907749,
          0.4675217530159701,
          -0.08381570887353607,
          -0.7698237836950742,
          -0.8067293871020116,
          0.49185062250113487,
          -0.5617619280537942,
          -0.33004095607378214,
          -0.59909598958371,
          -0.019088946467008285,
          -0.311428478659664,
          -0.4664738009261457,
          -0.08240556778856806,
          0.11324623454827809,
          -0.9873988117401671,
          -0.32404106453596565,
          -0.8429848140645233,
          0.4104268343605292,
          0.7378983555646722,
          0.09653161886288145,
          -0.43795006432178585,
          0.26356051532475483,
          -1.443451386821652,
          -0.32542200097148416,
          0.5421131044934254,
          0.17835346012504225,
          -0.7576722268014323,
          1.2925007953917291,
          0.443527285137229,
          0.6871451471128107,
          -0.28531344037442874,
          0.19113987591121262,
          -0.8760908068255456,
          -0.5731516834430237,
          0.992173831887822,
          -0.8335811701660399,
          0.48931484891250576,
          0.4032871932463041,
          -0.905423635209057,
          0.7175894086621649,
          -0.8311612497334155
        ],
        "bias": -0.5578719555234557
      },
      {
        "weights": [
          0.8619443792605999,
          0.454042619797742,
          0.31584247166751045,
          0.21559526346614985,
          1.118181684797609,
          0.706108531332658,
          0.7506979781953019,
          0.4649036642091986,
          -1.0208666006930833,
          -0.45212425301185893,
          0.5189774686186398,
          0.1832913282689825,
          0.9315996438011094,
          -0.3260292746120725,
          0.3848024955429504,
          0.14195170932620987,
          -0.7241708246272245,
          -0.27707548206350985,
          -0.8708689193072414,
          0.47169496215487056,
          0.4318049734339676,
          -0.6046052724192144,
          -0.7462098239169996,
          0.06048504234200303,
          -0.3886167932279451,
          -0.5472974313319264,
          -1.0878636799241344,
          -0.6340404994077319,
          0.440073579331415,
          -0.8617522912321611,
          -0.39552856236614403,
          0.2665928683410696,
          -0.3009633557752134,
          -0.41195086460023533,
          -0.5095937917071951,
          -1.4294972221825073,
          0.4886601388514246,
          0.4170198981905923,
          -0.41454876171293736,
          -0.8990753680278392,
          0.3349820770493017,
          -1.2880586270058763,
          -1.4280942336236202,
          0.7750393669174063,
          0.30423451040394434,
          -1.2154256402814578,
          -0.539447168158779,
          -0.37175639955381845,
          -0.287969077290015,
          -1.3992318462938256,
          -1.0393937222071679,
          -0.0302532896982099,
          1.0375957137394962,
          -0.6955622948871394,
          0.2504314704966385,
          0.6520969890273555,
          0.8352770023264187,
          -0.3781542792427162,
          1.5720043200559466,
          -0.7125709825861313,
          -0.8117173717753966,
          -0.03872839831612959,
          0.15603532803900425,
          -0.8018479791999393
        ],
        "bias": -2.2286595748213696
      },
      {
        "weights": [
          -0.014549333889787741,
          -0.41085506182999443,
          0.14518401662713767,
          -0.3451508894529954,
          -0.2050761350673087,
          -0.3525312086484461,
          0.80702863247625,
          -0.01413358990907356,
          0.5643535969742142,
          -0.32496505260120373,
          -0.4819760329199089,
          1.0878807797725816,
          -1.1607001597716435,
          -0.22861840405632303,
          -0.3753299330788093,
          0.452534616678264,
          -0.6776217819208469,
          -0.4265525090922181,
          0.7103129236861749,
          1.5080825056007383,
          -1.528479421779362,
          -1.656013686947597,
          -2.1277188276806993,
          -0.41374134152537134,
          -0.14816330195585567,
          1.1380716749691508,
          1.2364583636863329,
          0.8341802478622236,
          -0.9638791878855949,
          0.11027207428163865,
          0.13604549113760833,
          -0.8052609947340714,
          0.030603357677408936,
          0.6904809971114378,
          0.3648784801905017,
          -0.11566305706676627,
          -0.5931737918711435,
          -0.6176934136732873,
          -0.04343672685013161,
          -0.22393080226405426,
          -0.10898908359317977,
          -1.1353433464333815,
          -1.9439675408971722,
          -0.675358319445346,
          0.2014077221453161,
          0.9608698587381512,
          0.5372902177729791,
          -0.2918546510151397,
          -0.5597092516807635,
          0.7120663969016162,
          0.07245392159631024,
          0.19754515598008143,
          -0.41381729383533516,
          -0.7135551479283357,
          0.04293140674860374,
          -0.738366461057118,
          -0.7009197857511092,
          0.04402620683774172,
          0.6924328234298588,
          0.4872572698747298,
          -0.5337932777458584,
          -0.043838139683448074,
          -0.6408201327662053,
          0.5134358280572846
        ],
        "bias": -0.437436255737728
      },
      {
        "weights": [
          0.06465985399163521,
          -0.12895925076288683,
          -1.3926704342094878,
          -0.33504622326119193,
          -1.2713946307319992,
          -2.284520283454691,
          -1.1176340920979408,
          0.04677138163925695,
          0.3504888904968244,
          -0.3586169979446852,
          -1.3327341491838076,
          -1.7199922141082518,
          -0.7879362003625605,
          -0.22045778455647122,
          0.8943437294254932,
          -0.911920424373494,
          0.10281287692877783,
          1.1199925274028,
          1.2889574131903052,
          1.4628274101485266,
          -0.7757625686024328,
          0.3819021451428212,
          -0.3715823542769048,
          -1.2144525159712656,
          0.28187416402326526,
          0.3533888281867663,
          -0.2998934092670758,
          0.42486289751219547,
          -0.4569280844660589,
          0.15460784186836152,
          0.39259926437094445,
          0.20616205293666165,
          0.17632570528994937,
          -0.3444800981161694,
          0.18664755872585848,
          -0.5349792630038376,
          0.6234281012824932,
          -0.48323680873957636,
          0.8674616231561412,
          0.8582125816148483,
          0.8540481352716909,
          0.24146280140946821,
          2.065189511123004,
          1.5997971770725736,
          1.1381518938398891,
          0.6390302936501472,
          0.08987116689740336,
          -0.9239150305584246,
          0.22562652321570403,
          -0.3131414819664654,
          0.07187751465042336,
          -0.13567182920462284,
          -0.009836222832353407,
          0.1301889605144015,
          -0.07618572899213669,
          -0.4244778645301227,
          -0.7243754546967672,
          0.023219067939077513,
          -0.4063469996441089,
          -1.7952573575117448,
          0.7811872134061357,
          0.17098505255636265,
          -0.7318611902232138,
          0.9070182798932273
        ],
        "bias": -2.0066457695317896
      },
      {
        "weights": [
          -0.14965194828056605,
          0.13389515444558048,
          0.554708193182554,
          0.3189256126713579,
          -0.532216618324842,
          0.8267036970891922,
          0.2146693806509968,
          -0.3192484098102618,
          -0.41786201130941847,
          0.8509812447829809,
          0.18624852777587958,
          -0.26515896123086924,
          -0.9693461339119026,
          1.2727889965464088,
          0.007794680421009636,
          0.6950501469710003,
          0.7883654263395048,
          -0.027187438572398203,
          -0.10601993997675388,
          0.659920282956209,
          -0.30891709693925185,
          0.5752791822134643,
          0.9026175045312137,
          0.6784896854258202,
          0.7797608976880392,
          -0.24524912465109444,
          -1.1047146936433268,
          -0.38850815851439213,
          0.089213680462104,
          0.29533609909527236,
          0.19693099208815298,
          0.6122316645156511,
          -0.2193322266489808,
          0.2630080671678783,
          1.0244875450878506,
          -0.16273301727792333,
          -0.15332982190037828,
          -0.2813934290082251,
          0.10208571796061532,
          -0.02501328369434619,
          0.9831523185909851,
          -0.8979052739657054,
          0.38320663699889884,
          -0.7455135008331893,
          0.6011441493005277,
          0.9478345850184402,
          -0.05807226178187619,
          0.006647865328130452,
          0.7094804442332839,
          0.6479473679756783,
          0.13926032226759386,
          0.587452249932324,
          0.6053482569356211,
          -0.26788447770507967,
          0.19429876160247167,
          -0.35658989014973924,
          -0.05426615443804795,
          -0.2343706059589172,
          1.028592640171297,
          -0.27608761533899545,
          0.5923674867045858,
          0.23344382223825552,
          -0.18985135092826771,
          -0.6657348019509634
        ],
        "bias": 0.2669176391897282
      },
      {
        "weights": [
          -0.9715130309715347,
          0.08869172293131247,
          -1.015916638148672,
          -0.526810861783584,
          0.17253172084222435,
          -0.5844498379471604,
          -0.6200353368659279,
          0.08435354814547547,
          -0.8702868456538045,
          0.6160987616636814,
          -1.5923652486604918,
          0.5157957933540286,
          0.1592854746766735,
          0.548936468501546,
          0.9449561389895159,
          0.7684919802380655,
          -0.5083580664945259,
          -0.699300036349242,
          -1.2772395492473045,
          1.422486240430218,
          1.4620379681369766,
          -0.7490548850964155,
          0.6519187146407016,
          -0.6901855431152878,
          -0.7353749560284634,
          -0.4039103720484564,
          -1.0053624742752625,
          -0.9243338415953499,
          -0.44576557315435794,
          -0.7996043309656943,
          0.4182399291135619,
          0.166513505738471,
          0.31232655880704985,
          0.2412796839576292,
          0.5641886548108815,
          0.4690845122808706,
          -0.46443155400015335,
          0.5104059268332601,
          0.01741756784447881,
          0.4836611617037081,
          -0.36365668346948743,
          0.5738944620675803,
          0.35278220070621474,
          -1.6753762230842604,
          0.4762755367380892,
          -0.0763103477850584,
          -0.10425604097339151,
          0.5685291343116308,
          -0.7359840857516192,
          0.023350794837805652,
          1.5657684634235085,
          0.026468675465045447,
          0.8447633619499285,
          0.32381784987384743,
          -0.13123856226651862,
          0.021147626825633262,
          -0.37309028765927454,
          0.4129056487226115,
          -0.48955483346925394,
          0.19149839209436026,
          0.8730207322896855,
          0.977468282381854,
          0.4068296833947703,
          0.5043800431041399
        ],
        "bias": -0.5743340020945588
      },
      {
        "weights": [
          -0.09108150722453612,
          1.1103911316970836,
          0.6487636871263838,
          -0.338191424864733,
          0.45684772341794183,
          0.8168312868696124,
          0.25052209975114953,
          -0.39819411932351984,
          -0.20010850220652426,
          0.6648954272294583,
          0.780412790100867,
          0.7035437675019999,
          0.5282878089133268,
          0.5328423698612036,
          -0.4409480778552505,
          -0.46918271263410566,
          -0.7470734467294001,
          0.23931147051994175,
          -2.1804979988197863,
          -1.3727107356604848,
          0.3909455726081589,
          -0.44973608559199973,
          -1.2854066191052314,
          0.8010870425046732,
          0.9072475601432628,
          -0.9953696669695542,
          -0.797094544599665,
          0.3965462126285794,
          0.7831252433069029,
          0.3033859322007041,
          0.6046702438295128,
          -0.5161699174702429,
          -0.37242986241185005,
          0.221873088415923,
          -0.1090369917688663,
          1.109273481450179,
          -0.2474659453688814,
          -0.4434727297065861,
          0.39185654030861383,
          -0.2218448239853954,
          0.2513402454264765,
          0.7621646653066124,
          -1.3425155574681367,
          -0.9902361110861131,
          0.08183067914022862,
          0.5101408970557947,
          0.4398599371318962,
          0.28309141649624947,
          -0.5179884516027049,
          0.7556087858721807,
          -0.49420535364066026,
          -0.44495568095858795,
          -1.3192977907006196,
          0.3520428839571435,
          -0.738575308846831,
          -1.0135004677332036,
          0.42299464289755384,
          0.9853722592790524,
          0.7363461262354631,
          -0.844523310521224,
          -1.1060358184768435,
          -0.9712909255073069,
          0.21151752238723592,
          0.4586087109077954
        ],
        "bias": -0.21934125041719724
      },
      {
        "weights": [
          -0.6912797548437963,
          0.7239976814892405,
          -0.36755028920604776,
          -1.326559214748185,
          0.43324921188477666,
          -0.49241024643573056,
          0.7646488874197944,
          -0.49238482094787106,
          -0.11781980754189775,
          -1.0780672239290077,
          -0.2235849648830825,
          0.13144711742397638,
          0.6740340059510175,
          -0.5065899449995954,
          -0.5064130775148381,
          -0.8671393888879739,
          0.008956102877069855,
          -0.7203468238269188,
          -0.05340210087092448,
          -0.32252728107738987,
          -0.11824189225349543,
          0.01912677443230993,
          -1.7845271088601107,
          -0.9985485222775624,
          0.8252865725499928,
          0.966779849901585,
          1.229381093307949,
          0.11066293337807533,
          -0.9442592567644327,
          -0.5718294960596855,
          1.991967355150777,
          -0.9466681413955857,
          -0.2928764468392626,
          0.4412132599467513,
          0.7279525116169505,
          -0.910391138246663,
          -0.7040205661359951,
          -0.285046531539283,
          1.8527108728248254,
          -0.5063861896373427,
          0.7982949106367486,
          0.8287980381204147,
          0.5093733605232742,
          0.08491057123936145,
          -0.137906581780679,
          -0.32756790444638784,
          -0.2201148476772238,
          -0.4420952917950287,
          -0.1044846022478657,
          -0.033191279654840235,
          0.7160653117516547,
          0.4315262206903805,
          1.104654095847179,
          -0.1053535004031048,
          -0.7818423542095131,
          -0.08795401106524632,
          -0.6344842575305781,
          -0.3404402392499219,
          -0.8414427967719954,
          0.06180724152936704,
          -0.49769258471197586,
          -0.3161530803353059,
          -0.9802119507249417,
          -0.6180914305710538
        ],
        "bias": -0.003213422382182095
      },
      {
        "weights": [
          0.4835966458744918,
          0.9093529354965475,
          0.07183606630525907,
          -0.618367010325162,
          -0.07975770801036945,
          0.4220614638268095,
          -0.38345250056215663,
          -0.7761060819849857,
          -0.5857264375037546,
          -0.8383058637072224,
          -0.33193032374204773,
          0.35930984335814503,
          -0.04128759725504466,
          0.5542750029004618,
          -0.04489518206071625,
          0.7064256329210744,
          0.8879372724017395,
          0.6956292847666289,
          0.8083228722438567,
          0.42366902493953923,
          0.6369781736087134,
          0.4103042626163857,
          0.49073493039139815,
          -0.3108212110592151,
          0.14442234950580907,
          0.386041295806752,
          1.1582475835032013,
          -0.29008263810982754,
          0.5745091189361168,
          -0.2559541947374565,
          0.7801742717112372,
          -0.7553996302711585,
          0.9851320681555136,
          -0.29456254322634684,
          -0.30477914353099333,
          -0.06075191416949695,
          0.3231581590630126,
          1.2470250492711252,
          0.34937176901431083,
          -0.7739533221329955,
          -0.07356620551590942,
          -0.3972153207203939,
          -0.6150303074141968,
          -1.145957139754761,
          1.8558205774473349,
          1.4252509971473932,
          0.20882520943441096,
          0.7754724328667977,
          0.25965537760697166,
          0.10115885882428123,
          -0.2041482199786296,
          0.056061385234027504,
          0.13391284983053622,
          0.47524315175865883,
          0.9425129243423697,
          0.2824453704668178,
          -0.9588801896344439,
          0.8221470774603502,
          0.1692871730073123,
          0.161035603938187,
          -1.2327198826625791,
          -0.6209597435757329,
          -0.482274697063096,
          -0.2934811395681961
        ],
        "bias": -0.1456384703933148
      },
      {
        "weights": [
          -0.5548292211266328,
          0.07857008742032487,
          0.8988915426466749,
          -0.6595398790367065,
          0.4289445882851097,
          1.0436159025804628,
          0.2401529480128933,
          -0.7229333361510318,
          -0.510551472056204,
          0.41854204158013303,
          -0.24820547338091534,
          0.49828601882297097,
          1.6589858524951977,
          -0.22265957403366898,
          -1.5811410739161182,
          0.9428547853911933,
          0.06031631034305483,
          -0.2636463725812794,
          0.21534135997820686,
          -0.6339201846730673,
          -0.10596875472256147,
          0.11463239096163015,
          0.11832080417711964,
          0.8556428047028257,
          0.3608871737118248,
          0.7569898847370597,
          0.8404507226804134,
          -0.6338126177104022,
          -0.8532270781806288,
          1.2370597654017625,
          0.7708947926498158,
          -0.6221642470737857,
          -0.8567721178520684,
          1.0582317338482856,
          0.575989940824505,
          0.6759132305020383,
          -1.4472604763128083,
          0.6696596066380703,
          0.8424174151017164,
          -0.0393484868766798,
          -0.9875001788316853,
          0.684475467342006,
          -1.0210587111166871,
          -1.3793726120470982,
          0.5263253887371387,
          -0.002776572665469084,
          0.5983786808300663,
          -0.8788029505888675,
          0.38945808696296236,
          -0.2969998251591788,
          0.6017273220193525,
          -0.11261015588241137,
          -0.41844779581968883,
          -1.0547389751190495,
          -0.03998818650757847,
          -0.3331163555134098,
          -0.6991839685721836,
          0.7094110646345638,
          -0.6744712671542875,
          0.02390730707809711,
          0.3555840091123276,
          0.13441304118640945,
          -0.877894782506913,
          -0.05733936466023017
        ],
        "bias": 1.3802807823997492
      },
      {
        "weights": [
          -0.8350349439404556,
          -0.5239082444153874,
          0.665034606555557,
          0.5534862043027601,
          0.37392676877151415,
          -0.2896221537369892,
          -0.19530649845536782,
          -0.4253544418663953,
          -0.7983620834170637,
          0.6193206394310591,
          -0.015547752066847406,
          0.7463714021147944,
          0.8861537949355079,
          0.6937810242707939,
          1.1787646774018135,
          0.5629119942828484,
          0.9002947910581282,
          0.34861972299353633,
          0.8416011795744958,
          -0.17884575521979962,
          0.5145754292814053,
          0.49900360956160666,
          -0.4942607382239366,
          -0.3432517415232828,
          0.8249269658056536,
          0.5802009672960566,
          -0.050900828150687145,
          -0.08445213716209787,
          1.0001919180132204,
          -0.5806641112867958,
          -0.9198682916711437,
          -0.09362594250963778,
          -0.4938836065260366,
          -0.890496752885843,
          0.5963407606669623,
          -0.6649436098909779,
          0.9989822755790476,
          -0.08574429495133723,
          1.006439385381264,
          0.3146195521269346,
          -0.049201311410571026,
          -1.2711542895340782,
          0.057473858774981894,
          1.3646968047619046,
          -0.42366389156282863,
          -0.843925873953193,
          0.27565315890067543,
          0.9533747475741168,
          0.34242046127474307,
          -0.43914851355616374,
          0.10972551916090646,
          0.7585414889307116,
          -1.0803684050684785,
          -0.7083674081401119,
          -0.49140096129615707,
          -0.6923928717407035,
          0.24994408374325183,
          -0.08813243788556037,
          -0.8434060980706258,
          0.14400177117185345,
          -0.03125006682907308,
          -1.0372169513626546,
          -0.1968834809518693,
          -0.6265120691136075
        ],
        "bias": -0.15456160819749099
      },
      {
        "weights": [
          0.880070387830562,
          0.7388187434148915,
          0.595355745605642,
          -0.21666506008692504,
          0.9510598357438341,
          1.587721593964987,
          0.09349055851998907,
          0.6537303642072992,
          -0.3104850865067165,
          -0.5850335948134757,
          -0.3331826514667421,
          0.5526970244742788,
          0.6063822739019848,
          -0.2556482431298836,
          0.6468777639837622,
          -0.05284894511645651,
          0.2826428743317373,
          -1.4176770583029694,
          -1.2969176453062552,
          -0.602948482578872,
          0.02597738087982339,
          -2.351460074858924,
          -0.7176014534309512,
          0.39342384668976416,
          0.060720616709690846,
          -0.10563718716469346,
          -0.34188671646629304,
          0.755093020097037,
          -0.22472524554806375,
          -1.5610464365496082,
          0.6714814011089996,
          -0.4867545881800719,
          0.7580536219373133,
          -0.6933886535782623,
          0.4861238158660909,
          1.0417191170426556,
          -0.4609687643251212,
          0.5966260227976153,
          0.5455277129342709,
          -0.850848861941651,
          -0.7899820029773524,
          0.23386116844703758,
          1.3510354385046317,
          0.2323258042415084,
          -0.7078589910654773,
          0.298576795803015,
          0.8972832729455261,
          -0.5523075545416,
          -0.08797640772948112,
          -0.4143215730460917,
          0.6811191542649916,
          -0.3481233391743562,
          0.24629496999944836,
          -0.3769270528522288,
          0.10903607903564887,
          0.45278781708195665,
          -0.46126768370037075,
          -0.961961294141327,
          1.4570379494648842,
          1.2462641466699576,
          0.07841944302248773,
          -0.42723829239763855,
          -0.25436057029313325,
          0.14622084230949303
        ],
        "bias": 1.25103073950985
      },
      {
        "weights": [
          -0.4867649753271086,
          -0.8842234340064059,
          -0.5576384102242712,
          -1.3149341526456608,
          -0.019425501637187332,
          -0.7134703445911145,
          -0.3270380972206392,
          0.7348566410389714,
          -0.48382557841608553,
          0.6008164420499535,
          0.21648585490373576,
          -0.3083792176606904,
          -0.6580491345887292,
          -1.3522980826423603,
          -0.10143134398223873,
          1.092301600467355,
          0.1371554992251569,
          -0.5522410386884725,
          0.38747740495708954,
          -1.3703455853601378,
          0.4901556773089333,
          -0.3798314680826851,
          -1.046934698959612,
          0.39961295525428653,
          0.008244365293919345,
          -0.08761863724148666,
          0.018491717863664388,
          0.4628328914166086,
          0.8808245863663879,
          0.9345027551434518,
          0.8185556185655144,
          0.9372865662655128,
          0.6019352732671205,
          -0.9054755730946016,
          -0.5519456295029195,
          0.5478048791373098,
          -0.1738825056289594,
          0.8839159065442872,
          0.8573168292480301,
          0.021045520503503834,
          -0.20123408843303933,
          1.2233588777301276,
          -0.3455697775608341,
          1.4217354417789203,
          -0.009057440958157595,
          -0.9791987630201946,
          -0.061470131044882886,
          -0.4619195779758442,
          0.7118122345408563,
          0.4054025448336956,
          -0.35817242184735765,
          0.19279694759796387,
          0.24956301546858398,
          1.26475394673865,
          -0.0680398529751028,
          0.708826738379186,
          -0.2304578673848599,
          -0.26039559987379474,
          -0.03995713160080387,
          0.09429694051909267,
          0.660363226368973,
          1.7348039499838601,
          -0.238386425106453,
          0.8311195036036285
        ],
        "bias": -0.6322323872544063
      },
      {
        "weights": [
          0.7602616137671807,
          -0.4406955478182586,
          0.6989344183948841,
          -0.024757232261356097,
          1.0926555644969171,
          0.5115565943738097,
          0.8851814130250915,
          -0.5684813134036807,
          -0.8957597960730354,
          0.47434295913863034,
          0.8540533278271076,
          0.5307633427240549,
          -0.6984861804184945,
          0.675174541097981,
          -0.3017991887456091,
          0.781488349244589,
          -0.5371539841335583,
          0.9215634462584349,
          -0.9045320454541799,
          0.4531271266521564,
          -0.6767258824075315,
          0.06371074950681233,
          0.8322985883716424,
          -0.31946161924871197,
          -0.5371884738596664,
          0.9071620938736406,
          0.628594794590444,
          0.8938845513122566,
          0.9451320304715352,
          -0.8244439290109035,
          0.8649091458778693,
          -0.16647577044068884,
          0.34301208833551167,
          -0.8800947827270986,
          -0.39192953289920734,
          0.7028234806568191,
          -0.6885075547165427,
          0.9494768511645741,
          0.4638927037447256,
          -0.7134404921369182,
          0.9174890133696275,
          0.3102609272588881,
          0.7337101576822417,
          0.5076837501414313,
          -0.6091790896695299,
          0.43139514392904044,
          0.27929519356170623,
          0.08504338276376751,
          -0.24058339566077258,
          0.8434003268381073,
          -0.23653615708716438,
          0.9687686671511627,
          -0.6108926465913828,
          0.22557188827087252,
          -0.5677624859803247,
          0.05431672723693626,
          0.4032118880609783,
          0.5824707485072764,
          -0.018962414608235747,
          0.900236373023453,
          0.6165829116319808,
          -0.26317192705763576,
          0.692960270910415,
          0.8660104803511967
        ],
        "bias": -0.32712469438248043
      },
      {
        "weights": [
          0.3712619673144961,
          -0.790214919254734,
          0.6462911583259983,
          -0.6289913735452363,
          0.7122444289103097,
          0.9416574617720411,
          -0.08889095981577845,
          -0.8461129214942008,
          0.6991050069415192,
          -0.17839326900366012,
          -0.8438745857340461,
          -1.1548792720004202,
          -0.9101052318719283,
          0.5937042271676098,
          -0.07681867122727686,
          0.8104497375574834,
          -0.39223658224253644,
          0.7291321345363827,
          -0.9405470202573418,
          -0.2849981263141152,
          0.2551224376712215,
          -0.43444413104619617,
          -0.0486679489664335,
          0.808742565830418,
          0.6752035711433654,
          -0.4367010800839401,
          0.036036604676307676,
          -0.08746886340594076,
          0.817754150142756,
          -0.5622851405335698,
          0.43863685943302566,
          -0.055017017080931326,
          -0.24914480665025426,
          0.008390682609801076,
          -0.28146224565753847,
          -0.6181061485371064,
          -0.9547065208094919,
          0.5148143488897491,
          0.6423240997030034,
          0.5199786686831414,
          -0.4569017628973014,
          -0.6640088557448087,
          0.7932123031648964,
          -0.1889094225206479,
          -0.9577051290437761,
          0.5691887681721866,
          -0.1586839750871845,
          -0.1500026070002003,
          -0.0021548029145415427,
          -0.01280053624118038,
          -0.37534701292605976,
          0.5791752390675754,
          -0.9527347376844423,
          0.4305330684777085,
          0.22949998355106113,
          -0.46779463201910876,
          -0.4005349345274996,
          0.2473954480208109,
          0.3177704049049246,
          -0.705088179516807,
          -0.899799844481277,
          0.08973620903874466,
          0.3264350344862266,
          -0.05717907163741916
        ],
        "bias": 0.723013444798525
      },
      {
        "weights": [
          -0.8373961998219097,
          0.1703838608865699,
          -0.6077039264123786,
          -0.39268199885207516,
          0.16253106886348967,
          0.9077372913645536,
          -0.4861643409648048,
          -0.44909100456351925,
          -0.4424311641370281,
          0.3305296510185603,
          0.09799484063441712,
          -0.40406683065906024,
          -0.11217648446232507,
          0.584889050298064,
          -1.3591223207173644,
          0.564267191554032,
          0.7890555971648338,
          0.6898574609297695,
          0.3188164720005929,
          -0.5857689500206822,
          0.325132449218591,
          -0.44822923878401255,
          0.27552180782092,
          0.35372120361872134,
          0.941320166008364,
          -0.5530879304516607,
          -1.8858599576810589,
          -0.314535692613784,
          1.4521889083567168,
          -1.1223081395589494,
          -1.4929641588858333,
          -0.9571687133847738,
          0.27043315485426384,
          0.14779940377229747,
          0.5893133816264444,
          2.326963670805091,
          0.9796299407937937,
          -1.3915514741751995,
          -0.8147504195493787,
          0.18939065885318684,
          -0.4551556518188315,
          -1.1131655862956333,
          1.3151383856000551,
          0.46619352805604225,
          0.7582364407365335,
          -0.7736667077166764,
          0.12691256051360333,
          -0.4329194439948802,
          -0.5976408369690922,
          0.3351154790807059,
          1.3056002556509096,
          -0.1412102509825113,
          -0.1598765806892522,
          0.5923129486153077,
          1.2034763340839798,
          0.6686792201264528,
          -0.7987973162429897,
          -0.20341080256010843,
          -0.3515137157846288,
          0.30716793980619855,
          -0.1474366158355443,
          -0.49926082025993357,
          -0.20066014224036735,
          -0.01117403224420381
        ],
        "bias": 0.7172204404653841
      },
      {
        "weights": [
          0.26446714134091387,
          0.6987114340713202,
          0.07968343051144865,
          1.805333358194265,
          -0.3493108835605877,
          -0.3840422865098236,
          -1.4478862785907662,
          0.313496375371989,
          -0.26154988801073664,
          -0.9649050936918104,
          2.4998149936571727,
          0.6281680508641884,
          -0.7447153825203959,
          1.2140986176910997,
          0.7954912883934997,
          -0.04466332629071504,
          -0.48195960158077883,
          0.1737921980949375,
          0.436566154758443,
          -0.9181472137755088,
          0.8094997994171232,
          2.578869818052724,
          1.5691340403633423,
          -0.27092685022631985,
          -1.0018141907432299,
          0.8393492038844089,
          -0.0838879702786396,
          1.3031745967229569,
          0.16726571050082537,
          -0.9198947993756098,
          -1.1908633996504796,
          0.31694698869598725,
          0.15133794729715605,
          -1.3466987869240779,
          0.16596257150071797,
          -0.17088634232830113,
          -0.2872669975984503,
          -1.5510550975301165,
          -1.5192783246491033,
          -0.8858863449284797,
          0.7279893257629829,
          -0.6478965055340414,
          -1.2527767132087366,
          -2.513043244162318,
          -1.6277331029243367,
          1.2303868267486613,
          -0.5226637069178748,
          -0.44848534269259976,
          -0.24914502075142667,
          0.42954096821942056,
          1.0580889907257942,
          0.3093476252669542,
          -1.5316936154023297,
          1.2696730642509073,
          -0.18541237545145722,
          -0.3507794544988433,
          0.9527497913579661,
          -0.3523841655425048,
          0.24347905071248122,
          2.0513038066004285,
          0.5484874920785632,
          -0.882285917395298,
          -0.486721498962374,
          -0.752059566546925
        ],
        "bias": 4.435422728826246
      },
      {
        "weights": [
          -0.9223148394140575,
          -0.0411872485788602,
          -0.2561349179904243,
          0.6194748414212258,
          -0.8843095784613144,
          -0.04427188923142119,
          -0.904615818993864,
          -1.0563787718201185,
          0.27229826955695513,
          1.079581804881154,
          0.2862284314670104,
          0.3253102829985434,
          1.572888011781675,
          1.0160293517458447,
          0.1335002678537361,
          0.2216818747945717,
          0.08219600118963459,
          0.5105667440797492,
          -0.6792743730133078,
          -0.13796923721216645,
          1.6197326571370483,
          0.8366275208864923,
          0.33618356197118826,
          0.0003245662378745782,
          0.7936788304478833,
          -0.590019554781124,
          -0.0013537856782180919,
          0.2402606281492082,
          0.6711710382643553,
          0.202739214313062,
          -0.46177454438529697,
          -0.7566629614302143,
          -0.16300844657810404,
          0.12173129684231397,
          -0.9279540557257531,
          -0.6065326917913948,
          -0.4476336187776386,
          -2.1944294753144664,
          -1.2617714484318145,
          0.8879353040150897,
          -0.7051374660438121,
          -0.9838329133689266,
          -0.7089707659941783,
          -0.21151124366408192,
          -1.0965332657468525,
          -0.8847777351490017,
          0.492463177768642,
          -0.8492781777786826,
          0.21692515469602375,
          0.18002257414115275,
          0.5861980953129502,
          -0.7009843126910714,
          0.3892649142404521,
          0.726931530266968,
          -0.5290744888097213,
          -0.9233128388475429,
          0.045072277348697676,
          -0.2782818326620058,
          1.3568587914254082,
          1.1048396010343495,
          -0.9768264491204683,
          0.966799785669152,
          -0.3466348591082467,
          0.10182823103378134
        ],
        "bias": -0.8608764413485167
      },
      {
        "weights": [
          -0.9879332510706191,
          0.4354387372299357,
          1.9770616230581832,
          0.6130314100350933,
          -0.12575863015035632,
          0.6563142334928221,
          -0.2851253226700862,
          0.5280219219554865,
          0.37385289904420677,
          -0.7723467546691402,
          0.22557427568339558,
          1.4042479251325464,
          -0.1966068440604606,
          0.9165140496678895,
          0.39675214707556083,
          -0.4146636383977424,
          0.7847138638466211,
          -0.16595537163690033,
          1.0820567625319928,
          0.2582482491546864,
          0.8375715010971052,
          -1.3264575094067401,
          -0.8551483962654921,
          0.01176381405616671,
          0.13953017705582962,
          -0.25524924536316385,
          -0.26164051381512043,
          -0.30509577403764004,
          -1.2403031950491634,
          0.112946672640936,
          0.09131401483889856,
          0.6598182213529847,
          -0.0035580721832798885,
          0.12188633429557261,
          0.08138354241500752,
          -1.0616097437692702,
          0.2494955745861655,
          0.19030584558414285,
          0.3727029567029693,
          0.055536690998150284,
          -0.37706998798407193,
          -0.4229756329062451,
          -0.869135079941048,
          0.8137572218367625,
          -0.864835860056507,
          -0.8271706319846543,
          -2.009423643617959,
          0.5880361992736876,
          0.5873360804779816,
          1.0542379352118627,
          0.014823796295498673,
          -0.4900338974604793,
          0.38186443499678313,
          -1.5774380968677566,
          0.4872797887554568,
          0.09033523267025576,
          -0.7023619482844804,
          -0.4157319583383264,
          -0.7638835713626441,
          -0.10242689979527822,
          -1.5693690637935132,
          -0.8260465826795583,
          0.871782919641077,
          0.669499665776833
        ],
        "bias": -2.464020865825316
      },
      {
        "weights": [
          -0.32348486304890933,
          0.7157918675865746,
          0.7354260953224322,
          -0.40437970932671446,
          -0.02058343973159587,
          -0.3969171792640151,
          0.027802859574280872,
          0.8051370696428876,
          -0.6559557909393321,
          0.40693168419776543,
          0.38684005060835913,
          1.2015347431166696,
          -0.11377124718285445,
          -0.21226394357140654,
          0.25708669368176806,
          -0.3455738805919086,
          -0.6078910072328165,
          0.21765406240970844,
          0.010916367065269347,
          -2.8214397147775925,
          -1.2592671636479142,
          0.5389112452300656,
          1.110701302020142,
          0.16340732804059255,
          -0.13180378068446805,
          -0.8858368197020648,
          -2.024258393983729,
          -1.4699512997779398,
          0.10255883816804073,
          -1.3494137558640475,
          -0.1419887982599518,
          -0.49313738596895834,
          -0.15090148435556364,
          1.0799618285002208,
          0.5484834286619679,
          -1.2486424921382835,
          0.34117245262363266,
          0.5516505707943608,
          0.34147071473324414,
          0.8544391587236408,
          -0.8710598674532852,
          -0.13644237864124079,
          1.9368478463141994,
          0.045613746103928744,
          -0.14247025925824724,
          -0.5008416585894742,
          -1.114793706766227,
          -0.17053893973807277,
          0.5650266800255813,
          0.5261010021751089,
          -0.5281051290734508,
          1.4912556351381407,
          0.6944817693452549,
          0.891397030838384,
          0.5029583691803869,
          -0.18883673054955472,
          -0.8788303187604568,
          -0.422982845195956,
          0.20085733260168778,
          0.792381484431487,
          -0.9772116768912125,
          0.9480937034946809,
          0.7184279139502915,
          -0.11723885881652658
        ],
        "bias": -0.09651749747686171
      },
      {
        "weights": [
          -0.44288376183918166,
          -0.5750708140017526,
          0.7646872853282819,
          -0.2602592072941949,
          -0.839359142199982,
          -0.8153978685559942,
          -1.7237388891461287,
          -0.5246589016315558,
          0.6666577562584318,
          0.64588458470818,
          0.24650233902696297,
          -0.8002930970575053,
          0.2327123470375187,
          0.3276164455524762,
          -0.3737368140610363,
          0.47301148007467997,
          -0.03545307548209908,
          -0.43655424194815057,
          -1.0159386654804672,
          -0.09962645113733605,
          2.075744642278154,
          1.1016191402065645,
          0.8584514020522376,
          -0.2561659280824105,
          -0.9625035856376994,
          -0.04538039192046694,
          -0.2725765443128048,
          -0.38186897699974215,
          0.628836967481615,
          0.7019368935052094,
          -1.3350849965289435,
          0.11512366855286364,
          -0.5906512487521637,
          -0.7396058052747676,
          0.2093103488219086,
          -0.2796076930774932,
          0.4487152558502347,
          0.9847436380141977,
          -0.4862074954847795,
          0.8448499353185461,
          -0.9069751445659194,
          -1.1306633474480667,
          -1.52283028421647,
          -1.4632346062187889,
          0.5580792786110584,
          0.8993553328137456,
          0.4296585431573485,
          -0.848680991582093,
          -0.5470261553628853,
          -0.7599575972170085,
          -0.8099348203809639,
          -0.8641739390130915,
          -0.592671365459971,
          0.038038922590333354,
          -0.5802228550905408,
          0.742449106540555,
          -0.9680038041852802,
          -0.6375649157840757,
          -0.0731567175618378,
          -0.8831407905387416,
          -0.43933827762284583,
          0.20733959421139161,
          -0.8265811997979982,
          -0.9018258367369308
        ],
        "bias": -1.4144066235240258
      },
      {
        "weights": [
          0.7702467780497029,
          -0.9435908635920428,
          -0.4734278852951106,
          -0.13378617557129624,
          -0.9389133528074198,
          -0.1816878874529571,
          0.3847381934241985,
          -0.27566173751044587,
          0.9207799906408585,
          -0.7333124236940741,
          -0.22621081557329262,
          -1.4398162924549534,
          0.10625306074014555,
          0.4042086600176121,
          -0.26965168253393884,
          0.4866825413322454,
          -0.4314187344191845,
          0.5305359886391804,
          -1.425019975518473,
          0.6054807639518902,
          0.4917141154893245,
          -0.16741047443053295,
          -0.5980575161244437,
          0.7650596996403077,
          0.046798000010043105,
          0.3233601179166675,
          0.6219428166595372,
          -0.8621749646596679,
          -0.4419402936049003,
          -1.2348959395227674,
          -1.0060751572459863,
          -0.7066900415889477,
          -0.8218337281684658,
          0.1774381462249212,
          -0.8891709965447884,
          0.09251242953509216,
          -1.175773251985429,
          -0.9795250959618178,
          -0.6708012062464527,
          -0.7447625863684759,
          -0.7799692174020718,
          -1.4707026251988884,
          0.34631121700584266,
          -0.5197633426204938,
          -0.39526637482462273,
          0.7726521659334505,
          -0.35677319941382285,
          -0.7520790895031884,
          -0.984160792270205,
          -0.978372727558598,
          0.8732455961942069,
          1.2482663953487916,
          1.2038284686227523,
          1.6257541023904083,
          0.42326464478514925,
          -0.6070547746445591,
          0.7294284810186358,
          0.4474272617711108,
          0.38666235510530306,
          1.5928784848104462,
          1.5282950208808879,
          0.9086355218937856,
          0.4727815903979649,
          -0.005125154870545197
        ],
        "bias": -1.3628066476046419
      },
      {
        "weights": [
          -0.5101641639802226,
          0.4055880155669861,
          -0.6534042848578442,
          -0.9231298030894406,
          -0.7710503410521183,
          -0.008757030344067824,
          -0.6808822132554552,
          -0.32584150987982835,
          0.30186599651357776,
          -0.003194463670548961,
          -0.10597570963452313,
          -1.0670607656413569,
          -0.22128046778640983,
          -0.1773912502606406,
          0.5334511962794467,
          -0.26278968045012524,
          0.9732953827150104,
          -0.7974749427033312,
          0.18997143427714683,
          -0.8119853226313922,
          -0.500497107132625,
          -1.288206677419591,
          -0.5676642867276471,
          -0.3438008163066608,
          -0.21572853836060973,
          0.6315751583779985,
          0.49218271752606935,
          -0.6932213594043964,
          0.2117151271005956,
          0.314030683699308,
          -1.12026351927662,
          0.9747027609309338,
          0.971071071184614,
          1.0184824535886934,
          -0.12225766260291022,
          0.3995592174953659,
          -0.42118819874926283,
          -0.4285392423586434,
          0.5398925476916997,
          0.15714832109803512,
          -0.9968404811554812,
          0.43900494654691935,
          0.3833832409181684,
          1.344402085699662,
          -0.12272605171529952,
          -0.33506476954136566,
          0.47385200360272944,
          -0.3069480977588466,
          0.802814356673272,
          -0.8308343163884165,
          0.6491238489800587,
          -0.060585678984810265,
          0.29005968480923994,
          -0.2302483009849087,
          0.04320138136729461,
          0.7682436161164342,
          -0.9778202833823832,
          -0.3404377394518123,
          0.02198432756695148,
          -0.19310130794298686,
          1.0057570908726874,
          0.2702984415207292,
          0.5130060989381737,
          0.4319999524337
        ],
        "bias": 0.3696277125469427
      },
      {
        "weights": [
          -0.8202680421488262,
          -0.5134216845487282,
          0.4450492524058879,
          0.30530394216975915,
          -0.6985339768016279,
          -0.3772648861272968,
          -1.3585085340190912,
          0.4255396525833633,
          -1.3179751205435468,
          -0.7809825044376382,
          -0.8784555796824098,
          -0.6952794262563466,
          -0.5195381786474579,
          -1.7799793466592173,
          0.10738955709353269,
          0.5328523491188956,
          0.4325352537068532,
          -0.8949059814266438,
          -0.7081864383767796,
          1.8848445330843204,
          1.0776868933152182,
          -1.0559732034255098,
          -0.8764651445773822,
          0.30687676110966144,
          0.08059808646628319,
          1.359486853050713,
          0.319269011738593,
          1.333822257293721,
          0.9833968452910401,
          -0.9861255824668659,
          -0.30611990269837003,
          -0.404266938303052,
          0.40456170447139556,
          0.22246934691942047,
          -0.4444902612631825,
          -0.7650880306487946,
          1.0230896090603163,
          0.8929673238390454,
          1.467915368045987,
          -0.6561557454324476,
          0.5948768948020313,
          0.0143989937275029,
          -0.8628722722374483,
          1.780189405773123,
          1.0314320165591337,
          -1.3674983210560505,
          -1.2569393109959641,
          0.680056670790202,
          -0.5407466582116054,
          0.0733567142544033,
          -0.5417854424946517,
          0.06285662240467217,
          -0.11310879697174979,
          -0.964059146694562,
          -0.7826856574451125,
          0.3498901290469941,
          -0.9199655829479164,
          -0.2731378765374069,
          0.12661605862160044,
          -2.9222584072580298,
          -1.8355717400222011,
          0.4756656236294556,
          -0.5604862624378012,
          0.8190451988775934
        ],
        "bias": -3.6228812237942902
      },
      {
        "weights": [
          -0.30014569022283033,
          0.2776825854892587,
          -0.585253875386163,
          1.138306408305907,
          -0.035596003514977215,
          0.1368733619491996,
          -1.28736009196767,
          0.5215598992600841,
          -0.8484999227579397,
          0.09871868168789733,
          0.1065848456645792,
          -0.7406851138270616,
          -0.6104209230773819,
          -0.2583657976035975,
          -0.08272975410342259,
          0.5742882315509175,
          -0.03836957251205271,
          -0.9165800297457279,
          1.2715145262538878,
          1.995822576576866,
          0.7212114726220828,
          -0.3139534342273338,
          0.016454133881518732,
          -0.3655445433990137,
          -0.7324655485253007,
          0.46679480310956406,
          1.3531126718367827,
          1.0104332754550718,
          0.03222139053627794,
          -0.10446215438799107,
          -1.283286329463934,
          -0.8610163526911347,
          -0.37347191775018473,
          -0.5455524090247698,
          1.1565591001469666,
          -0.4521047153602611,
          -0.5330628358976603,
          -0.10859207140187618,
          0.39851135429813106,
          0.8483511484583717,
          -0.48334614973554874,
          0.47806789682018747,
          -0.6136817202451614,
          -0.7257024119200615,
          0.11489140855419505,
          0.2979656420447852,
          -0.48971775515419624,
          -0.3719676396249763,
          0.7651612882432,
          0.15603078509763962,
          0.7455258999875864,
          -0.18524340220469465,
          1.3645011852794378,
          1.5561463493299836,
          1.265724319903813,
          0.24842799483277114,
          -0.8170480489885424,
          -0.6699394381878429,
          0.6645895542099893,
          0.13436320544384647,
          0.38152009351006955,
          0.7964712746782677,
          -0.2012351999721147,
          0.7746117488701236
        ],
        "bias": 1.5740115186225356
      },
      {
        "weights": [
          -0.2938023943162331,
          0.7804588342994789,
          -0.3644400626099727,
          0.3797145715816774,
          0.8111688565755283,
          0.4382805226508306,
          -0.12829980997215715,
          -0.5125185040556243,
          0.9526879377614269,
          0.38659718234768614,
          -0.16787825714788798,
          -0.6111606877454049,
          0.22196519013832447,
          0.20305624527640256,
          0.7591057912699646,
          -0.5384654402548398,
          0.2587395769875155,
          1.2048263540684303,
          -0.7102134314015421,
          0.5155834677661925,
          1.0978534488272995,
          0.9736470974239958,
          0.8737131693886798,
          0.8333155736733622,
          0.4667948222912224,
          -0.22704547347465553,
          -0.24731872190283458,
          1.323760125614068,
          1.2042236307548042,
          0.4134425571278971,
          -0.04250661300285544,
          0.2951473942880772,
          -0.8173982783901345,
          -0.1033532871335856,
          0.456334223101528,
          -0.05106943301446639,
          1.354499431327613,
          -0.33403436102001516,
          -0.08937427583247479,
          0.8209474486452499,
          -0.11977925457081796,
          2.300825133949129,
          -0.20054318885413785,
          0.037312806467021,
          1.1516233054720388,
          0.30049585709711396,
          -0.5501601440915379,
          0.10425654404155213,
          0.8452474082399748,
          0.025218925872976576,
          0.6177646503426817,
          -1.1744900781012109,
          -1.997037219882237,
          -1.3517116580069328,
          -0.27806371579688866,
          0.6539393439783674,
          0.14816597033140777,
          0.7921517362267815,
          -0.8476837659139743,
          0.5190613219917514,
          0.10896523818451356,
          -0.8716735057152823,
          -1.322634887097079,
          -0.5621742712671228
        ],
        "bias": 1.450027893707281
      }
    ],
    [
      {
        "weights": [
          -0.18834372469454128,
          -0.6877568168147347,
          0.32077316885035356,
          0.2675290145612623,
          -0.2525484997500122,
          1.653440570583807,
          0.10419259700613204,
          -2.07147079157204,
          -2.6733777251941055,
          0.2795267240868398,
          -1.3535811024404072,
          0.3030820870642606,
          0.28675390470511347,
          3.6423583877680374,
          0.03773611176835304,
          0.6172752734087767,
          0.7552711746285283,
          -0.5749129316812516,
          -2.427289312542146,
          -1.179647913698671,
          -0.1309427206062343,
          -2.682810397660741,
          0.4599433201380141,
          1.6565505240231433,
          -0.7869218806675886,
          0.35201433416305766,
          -0.7387911382455153,
          0.6842182830147528,
          -0.9361808622518757,
          -2.4726697756322293,
          -1.1311215374315458,
          -2.7755957485362472
        ],
        "bias": -1.721199803168579
      },
      {
        "weights": [
          -1.374240901424231,
          -1.3019286558798393,
          0.6794030475549632,
          -1.3192434025475521,
          -0.3398789164287099,
          0.41104985569865193,
          -2.390293239192859,
          0.37813941133743356,
          -0.08274113298042916,
          1.4524876998863552,
          -1.3912393393808788,
          2.952708320300923,
          -3.534884143022971,
          -0.9879242225483095,
          -2.453769150633857,
          -1.9082104302702712,
          -1.7350877828602187,
          -0.5329449256519229,
          0.17085146164889498,
          -3.6749125282028485,
          0.7428129793472898,
          1.0121336460147563,
          -6.182093730367001,
          4.734310816431478,
          1.568656323565356,
          -5.376802937887691,
          2.3208497308296487,
          2.8326868350283285,
          -0.5008931084774735,
          2.0386289306411096,
          -2.872218266039985,
          0.006928976534721212
        ],
        "bias": -2.3214680522079965
      },
      {
        "weights": [
          1.3939467312151823,
          -1.1057349688212017,
          0.8490478711941671,
          -1.2110551556722167,
          0.6988302242962033,
          1.547832425669898,
          2.2065061406653896,
          0.8142691286642428,
          -1.7912475359321807,
          -2.8932731348814933,
          -1.2090855375309513,
          -0.1755575383324189,
          -1.6352596429228068,
          -2.946518929830028,
          -4.0601379387022165,
          -1.883075522063157,
          -0.89868131185208,
          -1.3528368770018926,
          1.4829765125567895,
          -0.6627607816012353,
          -0.15165117162985128,
          -1.0334536203141618,
          0.06193559989197502,
          1.2280643127427506,
          1.8266101625939348,
          2.885479963803376,
          -1.171498299236391,
          1.3399991597507654,
          -1.2553988904405735,
          0.02674834270685694,
          -0.21009425011504937,
          -3.1749612869977675
        ],
        "bias": -0.13578550594414027
      },
      {
        "weights": [
          -1.2229261263440714,
          -1.5840589533639704,
          -1.55480129580924,
          -1.18662172943817,
          -2.477234944813568,
          -3.5710734441952714,
          -1.4368677217137866,
          1.119118967998482,
          -0.6616636182692126,
          -0.9506067644104784,
          -2.004196427733851,
          2.663368444697212,
          2.3371950822436918,
          0.08203623371380177,
          -1.0402802049280802,
          -1.9137714969919422,
          -1.5344229629835804,
          1.404220006892584,
          -0.17396186087546336,
          -1.3558786086041932,
          0.06868993303163688,
          1.1391406202745613,
          1.9434992980360974,
          -0.29545910799221226,
          -3.165804605566744,
          2.445802089962004,
          3.6945433178685616,
          1.2267946020119458,
          0.3888926064638413,
          1.187275445062829,
          0.8447587454950098,
          -0.8438763542586453
        ],
        "bias": -2.4310746148417213
      },
      {
        "weights": [
          0.814352038691568,
          -3.849941435347078,
          1.6253384894505147,
          -0.9616407986623274,
          -0.48439081467032125,
          0.1994039664484439,
          -0.7695394357072425,
          -1.4700202302575125,
          1.5104704225469514,
          2.9755263997949344,
          0.2573036841158174,
          -0.35758735304364353,
          0.07707474892443136,
          2.1246881964358653,
          -0.5259296699877538,
          -0.1333674276583481,
          -2.170750934851864,
          0.80808169458829,
          2.2227632716279326,
          -1.8053778847188082,
          -0.21919423773543334,
          -2.5309259590830293,
          0.9404959392203961,
          -3.4191573061593132,
          -0.46259894285814235,
          -0.8703364618244828,
          -0.3701766528724076,
          -2.3221429626937002,
          0.20806977251279915,
          3.1356117500700145,
          -0.2960702005680158,
          2.9253824434880333
        ],
        "bias": 0.015862778822998917
      },
      {
        "weights": [
          -0.38989180099644516,
          -1.1456623118095404,
          -3.414964352745886,
          1.416972750047703,
          -1.1234802508441346,
          -3.6298005291710975,
          1.1291545407313583,
          0.3205150639357645,
          3.8535449125040198,
          -3.1101089054026705,
          0.28292394150783323,
          -1.8159573937545048,
          -1.3092274805346664,
          0.22967774488421513,
          -0.5763099142630624,
          1.624268239802195,
          0.6776230412174946,
          -0.02004588233664048,
          -1.038799559963235,
          -0.196142150733137,
          -0.028396939883446187,
          0.6121079553462674,
          -2.128855515339266,
          1.2387038735280067,
          3.112661987455062,
          -2.5901876408403326,
          -2.2276335129515092,
          2.058066784754009,
          -0.08821673432818879,
          -2.558160435192721,
          -0.13656137723266426,
          -1.317250383085224
        ],
        "bias": -1.3091021977480435
      },
      {
        "weights": [
          -0.9288943481198418,
          1.0411142704010703,
          -2.483295836244027,
          0.5454617141387798,
          -0.7264123776046436,
          1.0268482391275133,
          -0.6680559529521619,
          0.35677225211161007,
          -0.013050893805551808,
          2.583896870886865,
          -0.5244711475821127,
          -0.154485058244298,
          0.14999198246432588,
          0.9033059233439521,
          -1.0925120219176478,
          -2.267110325072309,
          1.0401853775446686,
          1.1167236585504385,
          -0.8840788305514949,
          -1.309615042292067,
          -0.0755292472824922,
          2.8845498523889384,
          -1.2926157809846994,
          -1.4570769406457476,
          -2.6383954750572833,
          0.14203543411922115,
          0.3689187596379597,
          -0.3187908816061043,
          3.0155635172803796,
          -0.43632999925588245,
          -1.2291837688949083,
          -4.176051739570556
        ],
        "bias": -0.9008845174207151
      },
      {
        "weights": [
          -0.10262104064887653,
          0.32991593785858403,
          -0.7958392512194474,
          -0.3167211217284068,
          -0.0922612368872591,
          1.7115489330208342,
          -0.4674966672828091,
          1.8151544036005594,
          -2.686345863464902,
          -2.141777757465078,
          -1.1558411143369693,
          -0.48660815847719957,
          4.066639690449542,
          -0.5822616506617647,
          1.096268393129246,
          0.1861811958983257,
          0.16368230291097974,
          -0.3867839209175453,
          -0.6162709204339218,
          -0.7768622935585389,
          0.7488668158289087,
          1.3340717786091343,
          -2.4609380844949413,
          -1.8746022021568076,
          0.8885829477076985,
          0.8149645968761565,
          -0.3269265233877899,
          -3.304622499843813,
          -0.773484200161387,
          0.6164174845098747,
          -3.7823517943934224,
          0.14373053708816438
        ],
        "bias": -1.2441174110777322
      },
      {
        "weights": [
          -1.5179589523322505,
          0.812393492622995,
          -0.5690141839941735,
          1.1919568569258532,
          -4.741929023143421,
          5.015357303388522,
          0.5495910176578537,
          -2.4687680526528886,
          -2.7403373718493773,
          0.14494241758039805,
          -2.62801156793968,
          -2.3066377403389833,
          -2.2291949922969527,
          -1.0354835527099486,
          1.981789746947087,
          -2.250901767218427,
          -0.5473776219204487,
          -1.1526293135978873,
          -3.2695874059642827,
          -0.38056212779200893,
          -0.627975801538083,
          3.408807411292512,
          2.4391397075359462,
          1.3824266973731474,
          -1.9120402597024968,
          -3.2326045521895868,
          -3.352119187353041,
          0.15243931355248355,
          -0.014302342255416224,
          -4.090503647572931,
          1.470465380018282,
          3.537546863384245
        ],
        "bias": -1.413103929802258
      },
      {
        "weights": [
          1.077518697335999,
          1.264959493229922,
          1.6996093552802118,
          2.6110598220891563,
          0.3299745105598476,
          -3.2248570978022966,
          -0.26241635281473497,
          -2.101454536756902,
          -4.036359411198761,
          -4.176798158755448,
          -0.6639567833889715,
          -0.10326467600233724,
          -3.1288483772720888,
          -3.601266694714239,
          -0.8842617651176442,
          1.4207472663601655,
          1.0340336377651207,
          -4.492254050462937,
          -2.726743993970162,
          -0.543560925168888,
          -0.8010838176462981,
          -1.6831946551671948,
          2.002474371225101,
          -0.8788411033238324,
          0.25350987403252995,
          -4.521883466270094,
          1.284213566404786,
          -3.047713857237859,
          0.13758149954105137,
          -0.5725621547125923,
          3.1383181063405843,
          1.390719485927851
        ],
        "bias": -1.5935772774620587
      }
    ]
  ],
  "structure": [
    64,
    32,
    10
  ],
  "fitness": null
}